<?xml version="1.0"?>
<opencv_storage>
<cascade>
  <stageType>BOOST</stageType>
  <featureType>HAAR</featureType>
  <height>40</height>
  <width>40</width>
  <stageParams>
    <boostType>GAB</boostType>
    <minHitRate>9.9500000476837158e-001</minHitRate>
    <maxFalseAlarm>4.4999998807907104e-001</maxFalseAlarm>
    <weightTrimRate>9.4999999999999996e-001</weightTrimRate>
    <maxDepth>5</maxDepth>
    <maxWeakCount>100</maxWeakCount></stageParams>
  <featureParams>
    <maxCatCount>0</maxCatCount>
    <featSize>1</featSize>
    <mode>ALL</mode></featureParams>
  <stageNum>7</stageNum>
  <stages>
    <!-- stage 0 -->
    <_>
      <maxWeakCount>2</maxWeakCount>
      <stageThreshold>3.7496034055948257e-002</stageThreshold>
      <weakClassifiers>
        <_>
          <internalNodes>
            1 2 85 -1.6142153739929199e-001 3 4 69
            -1.5890747308731079e-002 0 5 115 -2.0700353384017944e-001 6
            -1 41 1.2188987433910370e-001 7 8 160
            -6.0731376288458705e-004 9 -2 139 3.3409577608108521e-001 -3
            -4 82 1.1552332341670990e-001 -5 -6 11
            -3.7298179813660681e-004 -7 -8 91 1.4113473892211914e-001 10
            -9 102 3.3149701356887817e-001 -10 -11 22
            -4.3271288275718689e-001</internalNodes>
          <leafValues>
            7.5000000000000000e-001 -7.5000000000000000e-001
            6.6666668653488159e-001 1. -1. -1. 1. -1. 1.
            6.0000002384185791e-001 1. -9.5246797800064087e-001</leafValues></_>
        <_>
          <internalNodes>
            1 2 84 -1.3950675725936890e-001 3 4 93
            -1.1085715889930725e-001 5 6 216 1.9004135392606258e-003 0
            -1 211 1.7018869402818382e-004 -2 7 103
            -1.5206043608486652e-002 8 -3 42 4.8996853828430176e-001 9
            10 208 4.7592664486728609e-004 -4 11 45
            -8.1415906548500061e-002 -5 -6 14 -5.5894441902637482e-002
            12 -7 43 1.3804739713668823e-001 13 14 108
            9.7000956884585321e-005 -8 -9 124 -1.3638469576835632e-001
            -10 -11 205 -1.4659950975328684e-003 -12 -13 23
            2.0913307368755341e-001 -14 -15 44 -2.6509936898946762e-002</internalNodes>
          <leafValues>
            -1. 1. -1. 1. -7.5448191165924072e-001 1. -1. 1.
            -6.0385680198669434e-001 9.8996406793594360e-001 1. -1. -1.
            1. -1. 1.</leafValues></_></weakClassifiers></_>
    <!-- stage 1 -->
    <_>
      <maxWeakCount>2</maxWeakCount>
      <stageThreshold>-2.0143568515777588e-001</stageThreshold>
      <weakClassifiers>
        <_>
          <internalNodes>
            1 2 86 -9.6003130078315735e-002 3 4 51
            -1.7850099829956889e-003 5 6 143 -4.9433000385761261e-002 0
            -1 31 -3.5985581576824188e-002 -2 -3 29
            -1.2315119057893753e-001 7 8 127 -2.7687346935272217e-001 9
            10 141 -5.5421339347958565e-003 -4 -5 9
            -9.7055705264210701e-003 -6 11 195 6.4855199307203293e-003
            12 13 201 2.6152614504098892e-002 14 -7 198
            1.7079713940620422e-001 -8 -9 37 -4.1248002648353577e-001
            -10 -11 197 1.1937347881030291e-004 -12 -13 146
            3.8681784644722939e-004 -14 -15 25 4.6421098709106445e-001</internalNodes>
          <leafValues>
            1. -1. 6.0000002384185791e-001 -1. 1. -1. -1. 1. -1. 1.
            -5.1515150070190430e-001 7.2307693958282471e-001
            -8.4962403774261475e-001 6.9230771064758301e-001
            -9.6056336164474487e-001 7.1428573131561279e-001</leafValues></_>
        <_>
          <internalNodes>
            1 2 104 -9.6428353572264314e-005 3 4 153
            5.0153724849224091e-002 5 6 49 3.4373223781585693e-002 7 8
            129 4.0713317692279816e-002 0 9 137 -1.1563170701265335e-003
            10 11 72 -8.3026275038719177e-002 12 13 36
            -1.6844172030687332e-002 14 15 96 2.6795616373419762e-002 -1
            -2 99 -1.3071874156594276e-002 -3 -4 152
            -3.8060102611780167e-002 -5 -6 3 -1.2033797975163907e-004 -7
            16 212 -2.7359684463590384e-003 -8 -9 0
            2.0157847029622644e-004 -10 -11 13 1.4868965372443199e-003
            -12 -13 185 -5.2349548786878586e-002 -14 -15 27
            2.1618656814098358e-002 -16 -17 163 -2.3944798856973648e-002</internalNodes>
          <leafValues>
            7.1730297803878784e-001 1. -1. 1. -1. -1. 1. 1. -1. 1. 1.
            -1. -7.6825720071792603e-001 8.2898157835006714e-001 -1. 1.
            6.7011606693267822e-001 -8.9374339580535889e-001</leafValues></_></weakClassifiers></_>
    <!-- stage 2 -->
    <_>
      <maxWeakCount>2</maxWeakCount>
      <stageThreshold>-1.7577381432056427e-001</stageThreshold>
      <weakClassifiers>
        <_>
          <internalNodes>
            1 2 58 -1.1100284010171890e-001 3 4 100
            6.7120259627699852e-003 5 6 107 -1.5756281092762947e-002 7 8
            196 1.6142368316650391e-002 9 0 176 6.8046217784285545e-003
            10 11 130 -3.2699793577194214e-001 -1 12 28
            -1.7723912000656128e-001 -2 -3 170 -2.9369285330176353e-003
            -4 -5 135 -4.6561856288462877e-004 -6 13 63
            -2.4631982669234276e-003 14 -7 191 3.4449819941073656e-004
            15 16 190 -1.8749029550235718e-004 17 -8 21
            3.7298080325126648e-001 -9 -10 0 -2.2666904260404408e-004
            -11 -12 64 6.2319508288055658e-004 -13 -14 110
            1.7803551256656647e-001 -15 -16 52 -5.7966713939094916e-005
            -17 -18 173 4.9093060195446014e-002</internalNodes>
          <leafValues>
            -1. 5.5555558204650879e-001 1. -1. 1.
            -7.7777779102325439e-001 -1. 1. 1. -1. 1. -1. 1.
            6.9369369745254517e-001 -1. 1. -9.4285714626312256e-001
            -9.1061455011367798e-001 1.</leafValues></_>
        <_>
          <internalNodes>
            1 2 33 -3.8900427520275116e-002 3 4 79
            9.3093022704124451e-002 5 6 181 1.9556810148060322e-003 0 -1
            59 -1.4762292848899961e-003 -2 -3 0 -2.6912271277979016e-004
            7 8 35 2.1131664514541626e-002 9 10 118
            -2.3590536788105965e-002 11 12 183 9.2389389872550964e-002
            13 -4 164 -5.0180017948150635e-002 14 15 81
            -3.8601104170084000e-002 -5 -6 10 5.6384415365755558e-003 -7
            -8 75 -2.4689148366451263e-001 -9 -10 34
            -2.8044320642948151e-003 -11 -12 132
            -1.0678888857364655e-001 -13 -14 203
            -2.2975503816269338e-004 -15 -16 121 7.4768483638763428e-002</internalNodes>
          <leafValues>
            1. -7.6870507001876831e-001 1. -1. -1. -1. 1. 1.
            -8.6946749687194824e-001 -1. 1. -8.2506495714187622e-001
            9.2209774255752563e-001 -6.1895847320556641e-001
            5.3642249107360840e-001 8.4236580133438110e-001 -1.</leafValues></_></weakClassifiers></_>
    <!-- stage 3 -->
    <_>
      <maxWeakCount>2</maxWeakCount>
      <stageThreshold>-2.7918878197669983e-001</stageThreshold>
      <weakClassifiers>
        <_>
          <internalNodes>
            1 2 71 3.2277517020702362e-002 3 4 116
            -1.6059021651744843e-001 0 -1 112 -1.1222562752664089e-002 5
            6 180 -9.3548871576786041e-002 7 8 194
            1.1143278330564499e-002 -2 -3 46 2.2282684221863747e-004 9
            10 122 1.3489067554473877e-001 -4 11 204
            -4.2200163006782532e-002 12 13 200 5.5870111100375652e-003
            -5 -6 210 1.3084094971418381e-003 -7 -8 56
            5.9272520244121552e-002 -9 -10 134 1.4408048987388611e-001
            -11 -12 39 -3.4106924431398511e-004 -13 -14 0
            -8.5929379565641284e-005</internalNodes>
          <leafValues>
            -1. 1. -1. 1. 1. 1. -1. 1. -1. -7.0805370807647705e-001
            8.3333331346511841e-001 -1. 1. 1. -1.</leafValues></_>
        <_>
          <internalNodes>
            1 2 30 -9.3689188361167908e-002 3 4 188
            -8.4684016183018684e-003 5 6 171 -1.1751381680369377e-003 0
            -1 2 7.1470873081125319e-005 -2 -3 8 5.3725722245872021e-003
            -4 7 144 -4.0691539645195007e-002 8 -5 65
            7.4199952185153961e-002 -6 9 161 -1.5410697087645531e-002 10
            11 151 3.7866178900003433e-002 -7 -8 73
            -2.2690114378929138e-001 -9 -10 62 -3.7986412644386292e-001
            -11 -12 105 1.7929855734109879e-002</internalNodes>
          <leafValues>
            -1. 1. 1. -1. 8.1591039896011353e-001 -1. 1.
            7.3333334922790527e-001 -9.2773526906967163e-001
            -7.5808072090148926e-001 4.2886492609977722e-001
            -9.4003242254257202e-001 1.</leafValues></_></weakClassifiers></_>
    <!-- stage 4 -->
    <_>
      <maxWeakCount>2</maxWeakCount>
      <stageThreshold>-4.0511694550514221e-001</stageThreshold>
      <weakClassifiers>
        <_>
          <internalNodes>
            1 2 70 1.6019606962800026e-002 3 4 142
            -5.5646248161792755e-002 5 0 55 4.5046932063996792e-004 -1
            -2 15 -1.2808613479137421e-001 6 7 114
            -1.1862741410732269e-001 -3 -4 19 2.6763468049466610e-003 8
            9 147 1.1508150782901794e-004 10 11 87
            9.2780239880084991e-002 -5 -6 154 -4.6828910708427429e-002
            -7 -8 120 -6.2589475419372320e-004 -9 -10 76
            8.9653633534908295e-002 -11 -12 92 -3.0472117941826582e-004</internalNodes>
          <leafValues>
            -1. -1. 1. 1. -1. 5.6521737575531006e-001
            -7.9710143804550171e-001 -5.0000000000000000e-001 1.
            -6.9899666309356689e-001 1. -1. 1.</leafValues></_>
        <_>
          <internalNodes>
            1 2 54 -1.7475859203841537e-004 3 4 166
            1.1709155514836311e-003 5 6 167 1.3734379317611456e-003 7 8
            113 -7.0028156042098999e-002 0 -1 97
            -2.7853518986376002e-005 9 10 199 -4.4796842848882079e-004
            11 12 149 -4.1522099636495113e-003 -2 -3 16
            -5.6901844218373299e-003 -4 13 206 -2.1319260820746422e-002
            14 -5 145 -9.3704983592033386e-002 15 16 177
            6.0295965522527695e-004 -6 17 148 -4.2335301637649536e-002
            18 19 60 2.1856927778571844e-003 -7 -8 158
            -7.4843391776084900e-002 -9 -10 150 -4.6209292486310005e-004
            -11 -12 89 2.7888692915439606e-002 -13 -14 88
            2.2712160716764629e-004 -15 -16 38 -7.4392788112163544e-002
            -17 -18 209 2.4801416322588921e-002 -19 -20 172
            -2.4701416492462158e-002</internalNodes>
          <leafValues>
            -1. 1. 1. -1. -1. -1. 1. -1. 9.1615426540374756e-001
            -8.1948971748352051e-001 9.3678867816925049e-001
            -8.7642300128936768e-001 1. -8.4522134065628052e-001
            3.9198449254035950e-001 1. -1. 8.1973534822463989e-001 -1.
            1. -9.6089065074920654e-001</leafValues></_></weakClassifiers></_>
    <!-- stage 5 -->
    <_>
      <maxWeakCount>2</maxWeakCount>
      <stageThreshold>-1.0335794687271118e+000</stageThreshold>
      <weakClassifiers>
        <_>
          <internalNodes>
            1 2 213 2.7654115110635757e-002 3 4 119
            8.1149235367774963e-002 5 6 68 -2.2886458784341812e-002 0 7
            67 -6.8963140249252319e-002 8 9 202 5.8600911870598793e-003
            -1 10 66 -1.9417811185121536e-002 11 12 159
            8.1509124720469117e-004 13 -2 53 2.1827450394630432e-001 14
            15 157 -5.7635782286524773e-004 -3 16 156
            -3.0369195342063904e-001 -4 17 50 -1.2293948233127594e-001
            18 -5 175 4.4695459306240082e-002 -6 -7 4
            2.8121986542828381e-004 -8 -9 109 -7.7736929059028625e-002
            -10 -11 111 2.3992210626602173e-002 -12 -13 179
            7.8553362982347608e-005 -14 -15 94 -2.3393099009990692e-001
            -16 -17 20 -4.4456520676612854e-001 -18 -19 90
            1.8963919952511787e-002</internalNodes>
          <leafValues>
            1. -1. 6.6666668653488159e-001 -1. -1.
            6.0000002384185791e-001 1. -1. 4.2857143282890320e-001
            -9.6862745285034180e-001 -8.1818181276321411e-001
            6.6666668653488159e-001 -4.4329896569252014e-001
            5.3846156597137451e-001 -1. 9.4871795177459717e-001 -1. 1.
            -1. 1.</leafValues></_>
        <_>
          <internalNodes>
            1 2 61 1.6857726499438286e-002 3 4 40
            -1.7162559926509857e-001 0 -1 32 1.1012027040123940e-002 5 6
            165 7.7162066008895636e-004 -2 7 26 -5.8538377285003662e-001
            8 9 131 3.1013736588647589e-005 10 11 186
            -1.2727543711662292e-002 12 -3 80 2.4993258714675903e-001 -4
            -5 192 3.1882882467471063e-005 -6 -7 126
            -1.6431109979748726e-003 -8 -9 17 -2.6293599978089333e-002
            -10 -11 189 -1.1430728249251842e-002 -12 -13 215
            -5.5721111595630646e-002</internalNodes>
          <leafValues>
            1. -1. 8.3978217840194702e-001 7.3314881324768066e-001
            -5.9028053283691406e-001 3.1647610664367676e-001
            -8.9400547742843628e-001 8.8816392421722412e-001 1. -1.
            -6.0554522275924683e-001 9.1316515207290649e-001 1.
            -9.4131875038146973e-001</leafValues></_></weakClassifiers></_>
    <!-- stage 6 -->
    <_>
      <maxWeakCount>2</maxWeakCount>
      <stageThreshold>-1.1441206932067871e+000</stageThreshold>
      <weakClassifiers>
        <_>
          <internalNodes>
            1 2 74 -2.5065466761589050e-002 0 -1 182
            1.3354459078982472e-003 3 4 207 9.9000688642263412e-003 5 6
            117 2.7454845607280731e-002 7 8 133 2.4894130183383822e-004
            9 -2 83 2.9869906604290009e-002 10 11 169
            1.1196684499736875e-004 12 13 178 -9.5423660241067410e-004
            14 15 123 4.0710638277232647e-003 -3 -4 57
            -1.2204732000827789e-001 -5 -6 193 -1.1910756584256887e-003
            -7 -8 1 -2.4504290195181966e-004 -9 -10 101
            4.0004394948482513e-002 -11 -12 47 -4.1935347020626068e-002
            -13 -14 162 -2.6793307624757290e-003 -15 -16 5
            1.0572074679657817e-003</internalNodes>
          <leafValues>
            -1. 1. 1. 6.0000002384185791e-001 -9.4017094373703003e-001
            -9.4117647409439087e-001 7.1428573131561279e-001 -1. 1.
            -7.1428573131561279e-001 1. 6.4285713434219360e-001
            -3.2673266530036926e-001 2.8571428731083870e-002 1. -1. 1.</leafValues></_>
        <_>
          <internalNodes>
            1 2 155 2.9773153364658356e-003 3 4 168
            1.3473580474965274e-004 5 6 106 -3.0142687261104584e-002 7 8
            174 1.7131841741502285e-004 9 10 125 4.9345605075359344e-002
            0 11 12 -3.7142471410334110e-003 12 13 77
            -8.4560200572013855e-002 14 -1 214 1.5953142195940018e-002
            15 16 184 -1.2551792315207422e-004 17 -2 140
            9.1516217216849327e-003 -3 -4 6 3.6585454363375902e-003 -5
            -6 18 -5.6135451793670654e-001 18 19 128
            1.5737313078716397e-003 20 21 136 -1.7166413366794586e-002
            -7 -8 95 -1.3297481462359428e-002 -9 -10 187
            -9.2428282368928194e-004 -11 -12 48 1.0270666331052780e-002
            -13 -14 138 -9.5960008911788464e-004 -15 -16 98
            -4.9161342903971672e-003 -17 -18 7 1.1682369513437152e-003
            -19 -20 78 2.0418965141288936e-004 -21 -22 24
            2.6311466097831726e-001</internalNodes>
          <leafValues>
            1. 1. -1. -1. 1. 1. -1. 6.9374215602874756e-001
            -8.1738799810409546e-001 -8.3959507942199707e-001
            9.2624706029891968e-001 -1. 1. -8.4372669458389282e-001
            9.0465050935745239e-001 1. -1. 1. -1.
            -8.6517077684402466e-001 9.3391543626785278e-001
            8.3909380435943604e-001 -1.</leafValues></_></weakClassifiers></_></stages>
  <features>
    <_>
      <rects>
        <_>
          0 0 2 1 -1.</_>
        <_>
          1 0 1 1 2.</_></rects>
      <tilted>0</tilted></_>
    <_>
      <rects>
        <_>
          0 0 1 2 -1.</_>
        <_>
          0 1 1 1 2.</_></rects>
      <tilted>0</tilted></_>
    <_>
      <rects>
        <_>
          0 0 3 1 -1.</_>
        <_>
          1 0 1 1 3.</_></rects>
      <tilted>0</tilted></_>
    <_>
      <rects>
        <_>
          0 0 1 3 -1.</_>
        <_>
          0 1 1 1 3.</_></rects>
      <tilted>0</tilted></_>
    <_>
      <rects>
        <_>
          0 0 1 4 -1.</_>
        <_>
          0 1 1 2 2.</_></rects>
      <tilted>0</tilted></_>
    <_>
      <rects>
        <_>
          0 0 4 3 -1.</_>
        <_>
          1 0 2 3 2.</_></rects>
      <tilted>0</tilted></_>
    <_>
      <rects>
        <_>
          0 0 1 8 -1.</_>
        <_>
          0 4 1 4 2.</_></rects>
      <tilted>0</tilted></_>
    <_>
      <rects>
        <_>
          0 0 2 10 -1.</_>
        <_>
          0 0 1 5 2.</_>
        <_>
          1 5 1 5 2.</_></rects>
      <tilted>0</tilted></_>
    <_>
      <rects>
        <_>
          0 0 1 32 -1.</_>
        <_>
          0 8 1 16 2.</_></rects>
      <tilted>0</tilted></_>
    <_>
      <rects>
        <_>
          0 0 1 40 -1.</_>
        <_>
          0 10 1 20 2.</_></rects>
      <tilted>0</tilted></_>
    <_>
      <rects>
        <_>
          0 0 2 12 -1.</_>
        <_>
          1 0 1 12 2.</_></rects>
      <tilted>0</tilted></_>
    <_>
      <rects>
        <_>
          0 0 4 19 -1.</_>
        <_>
          1 0 2 19 2.</_></rects>
      <tilted>0</tilted></_>
    <_>
      <rects>
        <_>
          0 0 2 24 -1.</_>
        <_>
          1 0 1 24 2.</_></rects>
      <tilted>0</tilted></_>
    <_>
      <rects>
        <_>
          0 0 6 9 -1.</_>
        <_>
          2 0 2 9 3.</_></rects>
      <tilted>0</tilted></_>
    <_>
      <rects>
        <_>
          0 0 4 28 -1.</_>
        <_>
          2 0 2 28 2.</_></rects>
      <tilted>0</tilted></_>
    <_>
      <rects>
        <_>
          0 0 20 38 -1.</_>
        <_>
          5 0 10 38 2.</_></rects>
      <tilted>0</tilted></_>
    <_>
      <rects>
        <_>
          0 0 24 2 -1.</_>
        <_>
          6 0 12 2 2.</_></rects>
      <tilted>0</tilted></_>
    <_>
      <rects>
        <_>
          0 0 14 12 -1.</_>
        <_>
          0 0 7 6 2.</_>
        <_>
          7 6 7 6 2.</_></rects>
      <tilted>0</tilted></_>
    <_>
      <rects>
        <_>
          0 0 21 36 -1.</_>
        <_>
          7 12 7 12 9.</_></rects>
      <tilted>0</tilted></_>
    <_>
      <rects>
        <_>
          0 0 36 1 -1.</_>
        <_>
          9 0 18 1 2.</_></rects>
      <tilted>0</tilted></_>
    <_>
      <rects>
        <_>
          0 0 40 27 -1.</_>
        <_>
          10 0 20 27 2.</_></rects>
      <tilted>0</tilted></_>
    <_>
      <rects>
        <_>
          0 0 20 38 -1.</_>
        <_>
          10 0 10 38 2.</_></rects>
      <tilted>0</tilted></_>
    <_>
      <rects>
        <_>
          0 0 16 40 -1.</_>
        <_>
          0 20 16 20 2.</_></rects>
      <tilted>0</tilted></_>
    <_>
      <rects>
        <_>
          0 0 34 40 -1.</_>
        <_>
          0 0 17 20 2.</_>
        <_>
          17 20 17 20 2.</_></rects>
      <tilted>0</tilted></_>
    <_>
      <rects>
        <_>
          0 0 40 34 -1.</_>
        <_>
          0 0 20 17 2.</_>
        <_>
          20 17 20 17 2.</_></rects>
      <tilted>0</tilted></_>
    <_>
      <rects>
        <_>
          0 0 40 29 -1.</_>
        <_>
          20 0 20 29 2.</_></rects>
      <tilted>0</tilted></_>
    <_>
      <rects>
        <_>
          0 0 40 38 -1.</_>
        <_>
          20 0 20 38 2.</_></rects>
      <tilted>0</tilted></_>
    <_>
      <rects>
        <_>
          0 0 21 9 -1.</_>
        <_>
          0 3 21 3 3.</_></rects>
      <tilted>0</tilted></_>
    <_>
      <rects>
        <_>
          0 0 34 12 -1.</_>
        <_>
          0 6 34 6 2.</_></rects>
      <tilted>0</tilted></_>
    <_>
      <rects>
        <_>
          0 0 39 34 -1.</_>
        <_>
          0 17 39 17 2.</_></rects>
      <tilted>0</tilted></_>
    <_>
      <rects>
        <_>
          0 1 40 5 -1.</_>
        <_>
          10 1 20 5 2.</_></rects>
      <tilted>0</tilted></_>
    <_>
      <rects>
        <_>
          0 1 11 39 -1.</_>
        <_>
          0 14 11 13 3.</_></rects>
      <tilted>0</tilted></_>
    <_>
      <rects>
        <_>
          0 1 38 4 -1.</_>
        <_>
          0 1 19 2 2.</_>
        <_>
          19 3 19 2 2.</_></rects>
      <tilted>0</tilted></_>
    <_>
      <rects>
        <_>
          0 2 6 38 -1.</_>
        <_>
          3 2 3 38 2.</_></rects>
      <tilted>0</tilted></_>
    <_>
      <rects>
        <_>
          0 2 8 12 -1.</_>
        <_>
          0 2 4 6 2.</_>
        <_>
          4 8 4 6 2.</_></rects>
      <tilted>0</tilted></_>
    <_>
      <rects>
        <_>
          0 2 8 26 -1.</_>
        <_>
          0 2 4 13 2.</_>
        <_>
          4 15 4 13 2.</_></rects>
      <tilted>0</tilted></_>
    <_>
      <rects>
        <_>
          0 2 15 20 -1.</_>
        <_>
          0 7 15 10 2.</_></rects>
      <tilted>0</tilted></_>
    <_>
      <rects>
        <_>
          0 2 28 36 -1.</_>
        <_>
          0 11 28 18 2.</_></rects>
      <tilted>0</tilted></_>
    <_>
      <rects>
        <_>
          0 2 30 8 -1.</_>
        <_>
          0 6 30 4 2.</_></rects>
      <tilted>0</tilted></_>
    <_>
      <rects>
        <_>
          0 4 2 8 -1.</_>
        <_>
          0 4 1 4 2.</_>
        <_>
          1 8 1 4 2.</_></rects>
      <tilted>0</tilted></_>
    <_>
      <rects>
        <_>
          0 4 40 28 -1.</_>
        <_>
          10 4 20 28 2.</_></rects>
      <tilted>0</tilted></_>
    <_>
      <rects>
        <_>
          0 4 39 12 -1.</_>
        <_>
          13 8 13 4 9.</_></rects>
      <tilted>0</tilted></_>
    <_>
      <rects>
        <_>
          0 6 40 34 -1.</_>
        <_>
          0 23 40 17 2.</_></rects>
      <tilted>0</tilted></_>
    <_>
      <rects>
        <_>
          0 9 15 18 -1.</_>
        <_>
          5 15 5 6 9.</_></rects>
      <tilted>0</tilted></_>
    <_>
      <rects>
        <_>
          0 9 9 18 -1.</_>
        <_>
          0 15 9 6 3.</_></rects>
      <tilted>0</tilted></_>
    <_>
      <rects>
        <_>
          0 9 11 18 -1.</_>
        <_>
          0 18 11 9 2.</_></rects>
      <tilted>0</tilted></_>
    <_>
      <rects>
        <_>
          0 9 14 4 -1.</_>
        <_>
          0 10 14 2 2.</_></rects>
      <tilted>0</tilted></_>
    <_>
      <rects>
        <_>
          0 10 37 20 -1.</_>
        <_>
          0 15 37 10 2.</_></rects>
      <tilted>0</tilted></_>
    <_>
      <rects>
        <_>
          0 13 6 22 -1.</_>
        <_>
          0 13 3 11 2.</_>
        <_>
          3 24 3 11 2.</_></rects>
      <tilted>0</tilted></_>
    <_>
      <rects>
        <_>
          0 13 15 5 -1.</_>
        <_>
          5 13 5 5 3.</_></rects>
      <tilted>0</tilted></_>
    <_>
      <rects>
        <_>
          0 13 40 12 -1.</_>
        <_>
          20 13 20 12 2.</_></rects>
      <tilted>0</tilted></_>
    <_>
      <rects>
        <_>
          0 19 24 21 -1.</_>
        <_>
          8 26 8 7 9.</_></rects>
      <tilted>0</tilted></_>
    <_>
      <rects>
        <_>
          0 20 1 3 -1.</_>
        <_>
          0 21 1 1 3.</_></rects>
      <tilted>0</tilted></_>
    <_>
      <rects>
        <_>
          0 22 32 18 -1.</_>
        <_>
          16 22 16 18 2.</_></rects>
      <tilted>0</tilted></_>
    <_>
      <rects>
        <_>
          0 27 9 2 -1.</_>
        <_>
          3 27 3 2 3.</_></rects>
      <tilted>0</tilted></_>
    <_>
      <rects>
        <_>
          0 28 30 12 -1.</_>
        <_>
          10 32 10 4 9.</_></rects>
      <tilted>0</tilted></_>
    <_>
      <rects>
        <_>
          0 28 19 12 -1.</_>
        <_>
          0 34 19 6 2.</_></rects>
      <tilted>0</tilted></_>
    <_>
      <rects>
        <_>
          0 29 26 7 -1.</_>
        <_>
          13 29 13 7 2.</_></rects>
      <tilted>0</tilted></_>
    <_>
      <rects>
        <_>
          0 30 40 10 -1.</_>
        <_>
          10 30 20 10 2.</_></rects>
      <tilted>0</tilted></_>
    <_>
      <rects>
        <_>
          0 33 30 7 -1.</_>
        <_>
          15 33 15 7 2.</_></rects>
      <tilted>0</tilted></_>
    <_>
      <rects>
        <_>
          0 34 36 2 -1.</_>
        <_>
          0 34 18 1 2.</_>
        <_>
          18 35 18 1 2.</_></rects>
      <tilted>0</tilted></_>
    <_>
      <rects>
        <_>
          1 0 12 1 -1.</_>
        <_>
          1 0 6 1 2.</_></rects>
      <tilted>1</tilted></_>
    <_>
      <rects>
        <_>
          1 1 30 34 -1.</_>
        <_>
          16 1 15 34 2.</_></rects>
      <tilted>0</tilted></_>
    <_>
      <rects>
        <_>
          1 1 34 1 -1.</_>
        <_>
          1 1 17 1 2.</_></rects>
      <tilted>1</tilted></_>
    <_>
      <rects>
        <_>
          1 2 22 4 -1.</_>
        <_>
          1 2 11 2 2.</_>
        <_>
          12 4 11 2 2.</_></rects>
      <tilted>0</tilted></_>
    <_>
      <rects>
        <_>
          1 7 33 15 -1.</_>
        <_>
          12 12 11 5 9.</_></rects>
      <tilted>0</tilted></_>
    <_>
      <rects>
        <_>
          1 8 6 22 -1.</_>
        <_>
          1 8 3 11 2.</_>
        <_>
          4 19 3 11 2.</_></rects>
      <tilted>0</tilted></_>
    <_>
      <rects>
        <_>
          1 15 10 13 -1.</_>
        <_>
          6 15 5 13 2.</_></rects>
      <tilted>0</tilted></_>
    <_>
      <rects>
        <_>
          1 18 15 21 -1.</_>
        <_>
          6 25 5 7 9.</_></rects>
      <tilted>0</tilted></_>
    <_>
      <rects>
        <_>
          1 26 39 12 -1.</_>
        <_>
          14 30 13 4 9.</_></rects>
      <tilted>0</tilted></_>
    <_>
      <rects>
        <_>
          2 0 12 1 -1.</_>
        <_>
          2 0 6 1 2.</_></rects>
      <tilted>1</tilted></_>
    <_>
      <rects>
        <_>
          2 0 12 2 -1.</_>
        <_>
          2 0 6 2 2.</_></rects>
      <tilted>1</tilted></_>
    <_>
      <rects>
        <_>
          2 0 33 8 -1.</_>
        <_>
          2 4 33 4 2.</_></rects>
      <tilted>0</tilted></_>
    <_>
      <rects>
        <_>
          2 0 35 16 -1.</_>
        <_>
          2 8 35 8 2.</_></rects>
      <tilted>0</tilted></_>
    <_>
      <rects>
        <_>
          2 0 37 4 -1.</_>
        <_>
          2 2 37 2 2.</_></rects>
      <tilted>0</tilted></_>
    <_>
      <rects>
        <_>
          2 4 16 30 -1.</_>
        <_>
          10 4 8 30 2.</_></rects>
      <tilted>0</tilted></_>
    <_>
      <rects>
        <_>
          2 5 9 18 -1.</_>
        <_>
          5 11 3 6 9.</_></rects>
      <tilted>0</tilted></_>
    <_>
      <rects>
        <_>
          2 5 19 21 -1.</_>
        <_>
          2 12 19 7 3.</_></rects>
      <tilted>0</tilted></_>
    <_>
      <rects>
        <_>
          2 10 2 16 -1.</_>
        <_>
          3 10 1 16 2.</_></rects>
      <tilted>0</tilted></_>
    <_>
      <rects>
        <_>
          2 10 34 28 -1.</_>
        <_>
          19 10 17 28 2.</_></rects>
      <tilted>0</tilted></_>
    <_>
      <rects>
        <_>
          2 10 38 30 -1.</_>
        <_>
          21 10 19 30 2.</_></rects>
      <tilted>0</tilted></_>
    <_>
      <rects>
        <_>
          2 12 38 20 -1.</_>
        <_>
          2 17 38 10 2.</_></rects>
      <tilted>0</tilted></_>
    <_>
      <rects>
        <_>
          2 19 11 18 -1.</_>
        <_>
          2 28 11 9 2.</_></rects>
      <tilted>0</tilted></_>
    <_>
      <rects>
        <_>
          2 22 12 6 -1.</_>
        <_>
          5 22 6 6 2.</_></rects>
      <tilted>0</tilted></_>
    <_>
      <rects>
        <_>
          3 0 33 40 -1.</_>
        <_>
          3 10 33 20 2.</_></rects>
      <tilted>0</tilted></_>
    <_>
      <rects>
        <_>
          3 0 35 40 -1.</_>
        <_>
          3 10 35 20 2.</_></rects>
      <tilted>0</tilted></_>
    <_>
      <rects>
        <_>
          3 0 36 10 -1.</_>
        <_>
          3 5 36 5 2.</_></rects>
      <tilted>0</tilted></_>
    <_>
      <rects>
        <_>
          3 2 15 12 -1.</_>
        <_>
          8 6 5 4 9.</_></rects>
      <tilted>0</tilted></_>
    <_>
      <rects>
        <_>
          3 4 15 3 -1.</_>
        <_>
          3 5 15 1 3.</_></rects>
      <tilted>0</tilted></_>
    <_>
      <rects>
        <_>
          3 38 30 2 -1.</_>
        <_>
          13 38 10 2 3.</_></rects>
      <tilted>0</tilted></_>
    <_>
      <rects>
        <_>
          4 0 6 27 -1.</_>
        <_>
          6 0 2 27 3.</_></rects>
      <tilted>0</tilted></_>
    <_>
      <rects>
        <_>
          4 0 18 15 -1.</_>
        <_>
          10 5 6 5 9.</_></rects>
      <tilted>0</tilted></_>
    <_>
      <rects>
        <_>
          4 5 19 3 -1.</_>
        <_>
          4 6 19 1 3.</_></rects>
      <tilted>0</tilted></_>
    <_>
      <rects>
        <_>
          4 10 23 21 -1.</_>
        <_>
          4 17 23 7 3.</_></rects>
      <tilted>0</tilted></_>
    <_>
      <rects>
        <_>
          4 22 36 13 -1.</_>
        <_>
          13 22 18 13 2.</_></rects>
      <tilted>0</tilted></_>
    <_>
      <rects>
        <_>
          4 22 16 2 -1.</_>
        <_>
          4 22 16 1 2.</_></rects>
      <tilted>1</tilted></_>
    <_>
      <rects>
        <_>
          4 24 36 2 -1.</_>
        <_>
          22 24 18 2 2.</_></rects>
      <tilted>0</tilted></_>
    <_>
      <rects>
        <_>
          4 26 4 1 -1.</_>
        <_>
          5 27 2 1 2.</_></rects>
      <tilted>1</tilted></_>
    <_>
      <rects>
        <_>
          4 26 12 1 -1.</_>
        <_>
          7 29 6 1 2.</_></rects>
      <tilted>1</tilted></_>
    <_>
      <rects>
        <_>
          5 0 9 9 -1.</_>
        <_>
          8 0 3 9 3.</_></rects>
      <tilted>0</tilted></_>
    <_>
      <rects>
        <_>
          5 0 12 1 -1.</_>
        <_>
          5 0 6 1 2.</_></rects>
      <tilted>1</tilted></_>
    <_>
      <rects>
        <_>
          5 5 14 2 -1.</_>
        <_>
          5 5 7 2 2.</_></rects>
      <tilted>1</tilted></_>
    <_>
      <rects>
        <_>
          5 10 32 30 -1.</_>
        <_>
          5 25 32 15 2.</_></rects>
      <tilted>0</tilted></_>
    <_>
      <rects>
        <_>
          5 11 10 2 -1.</_>
        <_>
          5 11 5 2 2.</_></rects>
      <tilted>1</tilted></_>
    <_>
      <rects>
        <_>
          5 20 8 1 -1.</_>
        <_>
          7 20 4 1 2.</_></rects>
      <tilted>0</tilted></_>
    <_>
      <rects>
        <_>
          6 3 24 3 -1.</_>
        <_>
          14 3 8 3 3.</_></rects>
      <tilted>0</tilted></_>
    <_>
      <rects>
        <_>
          6 9 28 10 -1.</_>
        <_>
          6 9 14 5 2.</_>
        <_>
          20 14 14 5 2.</_></rects>
      <tilted>0</tilted></_>
    <_>
      <rects>
        <_>
          6 11 6 18 -1.</_>
        <_>
          9 11 3 18 2.</_></rects>
      <tilted>0</tilted></_>
    <_>
      <rects>
        <_>
          6 20 28 4 -1.</_>
        <_>
          6 21 28 2 2.</_></rects>
      <tilted>0</tilted></_>
    <_>
      <rects>
        <_>
          6 36 34 4 -1.</_>
        <_>
          23 36 17 4 2.</_></rects>
      <tilted>0</tilted></_>
    <_>
      <rects>
        <_>
          7 1 22 7 -1.</_>
        <_>
          7 1 11 7 2.</_></rects>
      <tilted>1</tilted></_>
    <_>
      <rects>
        <_>
          7 3 32 2 -1.</_>
        <_>
          15 3 16 2 2.</_></rects>
      <tilted>0</tilted></_>
    <_>
      <rects>
        <_>
          7 4 30 1 -1.</_>
        <_>
          7 4 15 1 2.</_></rects>
      <tilted>1</tilted></_>
    <_>
      <rects>
        <_>
          7 25 32 15 -1.</_>
        <_>
          23 25 16 15 2.</_></rects>
      <tilted>0</tilted></_>
    <_>
      <rects>
        <_>
          8 0 23 12 -1.</_>
        <_>
          8 6 23 6 2.</_></rects>
      <tilted>0</tilted></_>
    <_>
      <rects>
        <_>
          8 0 25 40 -1.</_>
        <_>
          8 10 25 20 2.</_></rects>
      <tilted>0</tilted></_>
    <_>
      <rects>
        <_>
          8 0 31 14 -1.</_>
        <_>
          8 7 31 7 2.</_></rects>
      <tilted>0</tilted></_>
    <_>
      <rects>
        <_>
          8 1 28 2 -1.</_>
        <_>
          8 1 14 2 2.</_></rects>
      <tilted>1</tilted></_>
    <_>
      <rects>
        <_>
          8 8 32 32 -1.</_>
        <_>
          8 16 32 16 2.</_></rects>
      <tilted>0</tilted></_>
    <_>
      <rects>
        <_>
          8 14 23 26 -1.</_>
        <_>
          8 27 23 13 2.</_></rects>
      <tilted>0</tilted></_>
    <_>
      <rects>
        <_>
          8 26 3 3 -1.</_>
        <_>
          9 27 1 3 3.</_></rects>
      <tilted>1</tilted></_>
    <_>
      <rects>
        <_>
          9 8 16 24 -1.</_>
        <_>
          17 8 8 24 2.</_></rects>
      <tilted>0</tilted></_>
    <_>
      <rects>
        <_>
          9 10 28 26 -1.</_>
        <_>
          23 10 14 26 2.</_></rects>
      <tilted>0</tilted></_>
    <_>
      <rects>
        <_>
          9 15 7 6 -1.</_>
        <_>
          9 18 7 3 2.</_></rects>
      <tilted>0</tilted></_>
    <_>
      <rects>
        <_>
          9 19 26 20 -1.</_>
        <_>
          22 19 13 20 2.</_></rects>
      <tilted>0</tilted></_>
    <_>
      <rects>
        <_>
          9 22 30 18 -1.</_>
        <_>
          19 28 10 6 9.</_></rects>
      <tilted>0</tilted></_>
    <_>
      <rects>
        <_>
          9 25 6 1 -1.</_>
        <_>
          12 25 3 1 2.</_></rects>
      <tilted>0</tilted></_>
    <_>
      <rects>
        <_>
          10 1 25 32 -1.</_>
        <_>
          10 9 25 16 2.</_></rects>
      <tilted>0</tilted></_>
    <_>
      <rects>
        <_>
          10 6 14 3 -1.</_>
        <_>
          9 7 14 1 3.</_></rects>
      <tilted>1</tilted></_>
    <_>
      <rects>
        <_>
          10 19 12 21 -1.</_>
        <_>
          14 26 4 7 9.</_></rects>
      <tilted>0</tilted></_>
    <_>
      <rects>
        <_>
          11 0 22 36 -1.</_>
        <_>
          11 9 22 18 2.</_></rects>
      <tilted>0</tilted></_>
    <_>
      <rects>
        <_>
          11 1 2 2 -1.</_>
        <_>
          11 1 1 1 2.</_>
        <_>
          12 2 1 1 2.</_></rects>
      <tilted>0</tilted></_>
    <_>
      <rects>
        <_>
          11 5 21 8 -1.</_>
        <_>
          18 12 7 8 3.</_></rects>
      <tilted>1</tilted></_>
    <_>
      <rects>
        <_>
          11 19 2 5 -1.</_>
        <_>
          12 19 1 5 2.</_></rects>
      <tilted>0</tilted></_>
    <_>
      <rects>
        <_>
          12 1 26 16 -1.</_>
        <_>
          12 1 13 8 2.</_>
        <_>
          25 9 13 8 2.</_></rects>
      <tilted>0</tilted></_>
    <_>
      <rects>
        <_>
          12 22 3 4 -1.</_>
        <_>
          11 23 3 2 2.</_></rects>
      <tilted>1</tilted></_>
    <_>
      <rects>
        <_>
          12 23 16 1 -1.</_>
        <_>
          12 23 8 1 2.</_></rects>
      <tilted>1</tilted></_>
    <_>
      <rects>
        <_>
          12 24 2 16 -1.</_>
        <_>
          12 24 1 8 2.</_>
        <_>
          13 32 1 8 2.</_></rects>
      <tilted>0</tilted></_>
    <_>
      <rects>
        <_>
          13 5 6 4 -1.</_>
        <_>
          15 5 2 4 3.</_></rects>
      <tilted>0</tilted></_>
    <_>
      <rects>
        <_>
          13 7 21 27 -1.</_>
        <_>
          20 16 7 9 9.</_></rects>
      <tilted>0</tilted></_>
    <_>
      <rects>
        <_>
          13 16 3 15 -1.</_>
        <_>
          13 21 3 5 3.</_></rects>
      <tilted>0</tilted></_>
    <_>
      <rects>
        <_>
          13 21 2 10 -1.</_>
        <_>
          13 21 2 5 2.</_></rects>
      <tilted>1</tilted></_>
    <_>
      <rects>
        <_>
          13 25 15 12 -1.</_>
        <_>
          13 29 15 4 3.</_></rects>
      <tilted>0</tilted></_>
    <_>
      <rects>
        <_>
          14 4 15 8 -1.</_>
        <_>
          14 8 15 4 2.</_></rects>
      <tilted>0</tilted></_>
    <_>
      <rects>
        <_>
          14 7 16 6 -1.</_>
        <_>
          14 10 16 3 2.</_></rects>
      <tilted>0</tilted></_>
    <_>
      <rects>
        <_>
          14 8 24 32 -1.</_>
        <_>
          14 16 24 16 2.</_></rects>
      <tilted>0</tilted></_>
    <_>
      <rects>
        <_>
          14 17 3 4 -1.</_>
        <_>
          13 18 3 2 2.</_></rects>
      <tilted>1</tilted></_>
    <_>
      <rects>
        <_>
          14 25 4 6 -1.</_>
        <_>
          16 25 2 6 2.</_></rects>
      <tilted>0</tilted></_>
    <_>
      <rects>
        <_>
          14 26 12 12 -1.</_>
        <_>
          14 30 12 4 3.</_></rects>
      <tilted>0</tilted></_>
    <_>
      <rects>
        <_>
          14 29 6 5 -1.</_>
        <_>
          16 31 2 5 3.</_></rects>
      <tilted>1</tilted></_>
    <_>
      <rects>
        <_>
          15 1 4 11 -1.</_>
        <_>
          16 1 2 11 2.</_></rects>
      <tilted>0</tilted></_>
    <_>
      <rects>
        <_>
          15 13 24 3 -1.</_>
        <_>
          27 13 12 3 2.</_></rects>
      <tilted>0</tilted></_>
    <_>
      <rects>
        <_>
          16 0 17 8 -1.</_>
        <_>
          16 4 17 4 2.</_></rects>
      <tilted>0</tilted></_>
    <_>
      <rects>
        <_>
          16 1 24 35 -1.</_>
        <_>
          22 1 12 35 2.</_></rects>
      <tilted>0</tilted></_>
    <_>
      <rects>
        <_>
          16 2 9 26 -1.</_>
        <_>
          16 15 9 13 2.</_></rects>
      <tilted>0</tilted></_>
    <_>
      <rects>
        <_>
          16 3 9 21 -1.</_>
        <_>
          19 3 3 21 3.</_></rects>
      <tilted>0</tilted></_>
    <_>
      <rects>
        <_>
          17 0 21 36 -1.</_>
        <_>
          17 12 21 12 3.</_></rects>
      <tilted>0</tilted></_>
    <_>
      <rects>
        <_>
          17 11 4 5 -1.</_>
        <_>
          18 12 2 5 2.</_></rects>
      <tilted>1</tilted></_>
    <_>
      <rects>
        <_>
          17 11 7 27 -1.</_>
        <_>
          17 20 7 9 3.</_></rects>
      <tilted>0</tilted></_>
    <_>
      <rects>
        <_>
          17 16 3 6 -1.</_>
        <_>
          18 18 1 2 9.</_></rects>
      <tilted>0</tilted></_>
    <_>
      <rects>
        <_>
          18 2 4 9 -1.</_>
        <_>
          18 5 4 3 3.</_></rects>
      <tilted>0</tilted></_>
    <_>
      <rects>
        <_>
          18 3 1 20 -1.</_>
        <_>
          18 13 1 10 2.</_></rects>
      <tilted>0</tilted></_>
    <_>
      <rects>
        <_>
          18 3 15 4 -1.</_>
        <_>
          17 4 15 2 2.</_></rects>
      <tilted>1</tilted></_>
    <_>
      <rects>
        <_>
          18 6 8 6 -1.</_>
        <_>
          20 8 4 6 2.</_></rects>
      <tilted>1</tilted></_>
    <_>
      <rects>
        <_>
          18 6 20 14 -1.</_>
        <_>
          23 11 10 14 2.</_></rects>
      <tilted>1</tilted></_>
    <_>
      <rects>
        <_>
          18 6 16 4 -1.</_>
        <_>
          17 7 16 2 2.</_></rects>
      <tilted>1</tilted></_>
    <_>
      <rects>
        <_>
          18 11 20 2 -1.</_>
        <_>
          18 11 10 1 2.</_>
        <_>
          28 12 10 1 2.</_></rects>
      <tilted>0</tilted></_>
    <_>
      <rects>
        <_>
          18 20 6 20 -1.</_>
        <_>
          20 20 2 20 3.</_></rects>
      <tilted>0</tilted></_>
    <_>
      <rects>
        <_>
          18 24 2 3 -1.</_>
        <_>
          17 25 2 1 3.</_></rects>
      <tilted>1</tilted></_>
    <_>
      <rects>
        <_>
          18 33 1 4 -1.</_>
        <_>
          18 34 1 2 2.</_></rects>
      <tilted>0</tilted></_>
    <_>
      <rects>
        <_>
          19 0 8 4 -1.</_>
        <_>
          18 1 8 2 2.</_></rects>
      <tilted>1</tilted></_>
    <_>
      <rects>
        <_>
          19 12 5 6 -1.</_>
        <_>
          19 14 5 2 3.</_></rects>
      <tilted>0</tilted></_>
    <_>
      <rects>
        <_>
          19 26 6 12 -1.</_>
        <_>
          19 30 6 4 3.</_></rects>
      <tilted>0</tilted></_>
    <_>
      <rects>
        <_>
          20 0 18 4 -1.</_>
        <_>
          20 0 18 2 2.</_></rects>
      <tilted>1</tilted></_>
    <_>
      <rects>
        <_>
          20 8 5 3 -1.</_>
        <_>
          19 9 5 1 3.</_></rects>
      <tilted>1</tilted></_>
    <_>
      <rects>
        <_>
          21 2 13 16 -1.</_>
        <_>
          21 2 13 8 2.</_></rects>
      <tilted>1</tilted></_>
    <_>
      <rects>
        <_>
          21 11 10 2 -1.</_>
        <_>
          26 11 5 2 2.</_></rects>
      <tilted>0</tilted></_>
    <_>
      <rects>
        <_>
          22 4 2 26 -1.</_>
        <_>
          23 4 1 26 2.</_></rects>
      <tilted>0</tilted></_>
    <_>
      <rects>
        <_>
          22 18 9 9 -1.</_>
        <_>
          25 18 3 9 3.</_></rects>
      <tilted>0</tilted></_>
    <_>
      <rects>
        <_>
          22 20 3 8 -1.</_>
        <_>
          23 21 1 8 3.</_></rects>
      <tilted>1</tilted></_>
    <_>
      <rects>
        <_>
          23 4 14 20 -1.</_>
        <_>
          23 4 14 10 2.</_></rects>
      <tilted>1</tilted></_>
    <_>
      <rects>
        <_>
          23 14 6 8 -1.</_>
        <_>
          25 16 2 8 3.</_></rects>
      <tilted>1</tilted></_>
    <_>
      <rects>
        <_>
          23 32 17 8 -1.</_>
        <_>
          23 36 17 4 2.</_></rects>
      <tilted>0</tilted></_>
    <_>
      <rects>
        <_>
          24 3 16 16 -1.</_>
        <_>
          24 3 8 8 2.</_>
        <_>
          32 11 8 8 2.</_></rects>
      <tilted>0</tilted></_>
    <_>
      <rects>
        <_>
          24 5 15 2 -1.</_>
        <_>
          24 6 15 1 2.</_></rects>
      <tilted>0</tilted></_>
    <_>
      <rects>
        <_>
          25 5 2 24 -1.</_>
        <_>
          19 11 2 12 2.</_></rects>
      <tilted>1</tilted></_>
    <_>
      <rects>
        <_>
          25 16 4 16 -1.</_>
        <_>
          25 24 4 8 2.</_></rects>
      <tilted>0</tilted></_>
    <_>
      <rects>
        <_>
          25 21 1 9 -1.</_>
        <_>
          25 24 1 3 3.</_></rects>
      <tilted>0</tilted></_>
    <_>
      <rects>
        <_>
          25 22 6 9 -1.</_>
        <_>
          27 25 2 3 9.</_></rects>
      <tilted>0</tilted></_>
    <_>
      <rects>
        <_>
          25 22 3 9 -1.</_>
        <_>
          22 25 3 3 3.</_></rects>
      <tilted>1</tilted></_>
    <_>
      <rects>
        <_>
          25 31 4 1 -1.</_>
        <_>
          25 31 2 1 2.</_></rects>
      <tilted>1</tilted></_>
    <_>
      <rects>
        <_>
          26 13 6 3 -1.</_>
        <_>
          25 14 6 1 3.</_></rects>
      <tilted>1</tilted></_>
    <_>
      <rects>
        <_>
          26 14 1 4 -1.</_>
        <_>
          26 15 1 2 2.</_></rects>
      <tilted>0</tilted></_>
    <_>
      <rects>
        <_>
          26 14 9 18 -1.</_>
        <_>
          26 20 9 6 3.</_></rects>
      <tilted>0</tilted></_>
    <_>
      <rects>
        <_>
          26 30 6 4 -1.</_>
        <_>
          28 32 2 4 3.</_></rects>
      <tilted>1</tilted></_>
    <_>
      <rects>
        <_>
          27 14 12 4 -1.</_>
        <_>
          33 14 6 4 2.</_></rects>
      <tilted>0</tilted></_>
    <_>
      <rects>
        <_>
          27 28 8 8 -1.</_>
        <_>
          27 32 8 4 2.</_></rects>
      <tilted>0</tilted></_>
    <_>
      <rects>
        <_>
          27 31 1 4 -1.</_>
        <_>
          27 33 1 2 2.</_></rects>
      <tilted>0</tilted></_>
    <_>
      <rects>
        <_>
          28 1 12 35 -1.</_>
        <_>
          34 1 6 35 2.</_></rects>
      <tilted>0</tilted></_>
    <_>
      <rects>
        <_>
          28 3 1 6 -1.</_>
        <_>
          28 5 1 2 3.</_></rects>
      <tilted>0</tilted></_>
    <_>
      <rects>
        <_>
          28 5 3 24 -1.</_>
        <_>
          29 13 1 8 9.</_></rects>
      <tilted>0</tilted></_>
    <_>
      <rects>
        <_>
          28 5 3 18 -1.</_>
        <_>
          28 5 3 9 2.</_></rects>
      <tilted>1</tilted></_>
    <_>
      <rects>
        <_>
          28 16 4 18 -1.</_>
        <_>
          28 16 2 9 2.</_>
        <_>
          30 25 2 9 2.</_></rects>
      <tilted>0</tilted></_>
    <_>
      <rects>
        <_>
          28 22 3 4 -1.</_>
        <_>
          29 23 1 4 3.</_></rects>
      <tilted>1</tilted></_>
    <_>
      <rects>
        <_>
          29 6 11 8 -1.</_>
        <_>
          27 8 11 4 2.</_></rects>
      <tilted>1</tilted></_>
    <_>
      <rects>
        <_>
          29 35 2 3 -1.</_>
        <_>
          29 35 1 3 2.</_></rects>
      <tilted>1</tilted></_>
    <_>
      <rects>
        <_>
          30 28 4 6 -1.</_>
        <_>
          30 28 2 6 2.</_></rects>
      <tilted>1</tilted></_>
    <_>
      <rects>
        <_>
          31 1 6 27 -1.</_>
        <_>
          34 1 3 27 2.</_></rects>
      <tilted>0</tilted></_>
    <_>
      <rects>
        <_>
          31 9 3 20 -1.</_>
        <_>
          32 10 1 20 3.</_></rects>
      <tilted>1</tilted></_>
    <_>
      <rects>
        <_>
          31 9 9 24 -1.</_>
        <_>
          31 15 9 12 2.</_></rects>
      <tilted>0</tilted></_>
    <_>
      <rects>
        <_>
          31 17 8 4 -1.</_>
        <_>
          31 17 4 2 2.</_>
        <_>
          35 19 4 2 2.</_></rects>
      <tilted>0</tilted></_>
    <_>
      <rects>
        <_>
          31 29 3 3 -1.</_>
        <_>
          32 29 1 3 3.</_></rects>
      <tilted>0</tilted></_>
    <_>
      <rects>
        <_>
          33 23 3 4 -1.</_>
        <_>
          34 24 1 4 3.</_></rects>
      <tilted>1</tilted></_>
    <_>
      <rects>
        <_>
          34 2 6 38 -1.</_>
        <_>
          37 2 3 38 2.</_></rects>
      <tilted>0</tilted></_>
    <_>
      <rects>
        <_>
          34 17 6 11 -1.</_>
        <_>
          36 17 2 11 3.</_></rects>
      <tilted>0</tilted></_>
    <_>
      <rects>
        <_>
          36 0 3 24 -1.</_>
        <_>
          36 12 3 12 2.</_></rects>
      <tilted>0</tilted></_>
    <_>
      <rects>
        <_>
          38 1 2 14 -1.</_>
        <_>
          38 1 2 7 2.</_></rects>
      <tilted>1</tilted></_></features></cascade>
</opencv_storage>
